<?xml version="1.0"?>
<opencv_storage>
<cascade>
  <stageType>BOOST</stageType>
  <featureType>LBP</featureType>
  <height>24</height>
  <width>24</width>
  <stageParams>
    <boostType>GAB</boostType>
    <minHitRate>9.9900001287460327e-01</minHitRate>
    <maxFalseAlarm>5.0000000000000000e-01</maxFalseAlarm>
    <weightTrimRate>9.4999999999999996e-01</weightTrimRate>
    <maxDepth>1</maxDepth>
    <maxWeakCount>100</maxWeakCount></stageParams>
  <featureParams>
    <maxCatCount>256</maxCatCount>
    <featSize>1</featSize></featureParams>
  <stageNum>19</stageNum>
  <stages>
    <!-- stage 0 -->
    <_>
      <maxWeakCount>3</maxWeakCount>
      <stageThreshold>-1.0873023271560669e+00</stageThreshold>
      <weakClassifiers>
        <_>
          <internalNodes>
            0 -1 7 -36770104 -10898529 1526970497 -2649121 -638849142
            -552309 -74711041 -1065985</internalNodes>
          <leafValues>
            -8.9421719312667847e-01 6.2707841396331787e-01</leafValues></_>
        <_>
          <internalNodes>
            0 -1 130 2004824375 2137909727 -1181483605 -2262561
            -160740553 -12600997 -68311309 -2102273</internalNodes>
          <leafValues>
            -7.8415191173553467e-01 5.8989679813385010e-01</leafValues></_>
        <_>
          <internalNodes>
            0 -1 122 -134220291 -8388653 -618668581 -2368545 -1054211
            -25253985 -1075840908 -17015052</internalNodes>
          <leafValues>
            -7.8298193216323853e-01 6.2747049331665039e-01</leafValues></_></weakClassifiers></_>
    <!-- stage 1 -->
    <_>
      <maxWeakCount>5</maxWeakCount>
      <stageThreshold>-1.0568277835845947e+00</stageThreshold>
      <weakClassifiers>
        <_>
          <internalNodes>
            0 -1 67 802893615 -5007521 -1660325569 -805893 1808760575
            -35865697 -541328389 -2097185</internalNodes>
          <leafValues>
            -8.2155114412307739e-01 5.6911581754684448e-01</leafValues></_>
        <_>
          <internalNodes>
            0 -1 35 140225199 -1441011267 -1003527169 -268501155
            2008776637 -77865557 -273024001 -1</internalNodes>
          <leafValues>
            -7.8084349632263184e-01 4.9260804057121277e-01</leafValues></_>
        <_>
          <internalNodes>
            0 -1 78 -652217345 -18939873 1373238303 -98641697 -108295282
            -78436341 -74515465 -84344898</internalNodes>
          <leafValues>
            -5.9275770187377930e-01 6.8103355169296265e-01</leafValues></_>
        <_>
          <internalNodes>
            0 -1 148 -540289277 -711150180 -841515521 -2362401
            -604017115 -745577693 -72354064 -537985035</internalNodes>
          <leafValues>
            -7.4551862478256226e-01 5.5491262674331665e-01</leafValues></_>
        <_>
          <internalNodes>
            0 -1 172 -1140851759 -1529408747 -721298977 -1362538243
            -1112884295 -1887386966 -1182018571 -54605336</internalNodes>
          <leafValues>
            -6.2082457542419434e-01 6.1039161682128906e-01</leafValues></_></weakClassifiers></_>
    <!-- stage 2 -->
    <_>
      <maxWeakCount>5</maxWeakCount>
      <stageThreshold>-1.1832917928695679e+00</stageThreshold>
      <weakClassifiers>
        <_>
          <internalNodes>
            0 -1 9 -277876945 -134890117 -1856504321 -34481667
            -1147487301 -52583718 -660153345 -279813</internalNodes>
          <leafValues>
            -7.3913043737411499e-01 4.7712418437004089e-01</leafValues></_>
        <_>
          <internalNodes>
            0 -1 151 -2123777 -10540673 -1684186145 -134281091
            -106181769 -343348295 -876946447 -35526169</internalNodes>
          <leafValues>
            -6.3954699039459229e-01 5.6629437208175659e-01</leafValues></_>
        <_>
          <internalNodes>
            0 -1 19 1991679703 -1898259969 -624634274 -354505382
            -22029481 2057560763 -206703919 -50603308</internalNodes>
          <leafValues>
            -7.3084455728530884e-01 4.7334551811218262e-01</leafValues></_>
        <_>
          <internalNodes>
            0 -1 143 2135385905 1829759962 -1849500868 -1460321
            -171492539 -204814737 2078103542 -202376201</internalNodes>
          <leafValues>
            -7.2977727651596069e-01 4.2129006981849670e-01</leafValues></_>
        <_>
          <internalNodes>
            0 -1 79 -1118214753 -539294977 403723231 2052772847
            -263643538 -94699158 -1190216911 -1166509450</internalNodes>
          <leafValues>
            -6.4467716217041016e-01 5.0494015216827393e-01</leafValues></_></weakClassifiers></_>
    <!-- stage 3 -->
    <_>
      <maxWeakCount>5</maxWeakCount>
      <stageThreshold>-1.2203365564346313e+00</stageThreshold>
      <weakClassifiers>
        <_>
          <internalNodes>
            0 -1 22 -545292289 -86124069 1880610783 -25796609 -805046017
            -611604165 -108397569 -19398673</internalNodes>
          <leafValues>
            -6.8698930740356445e-01 5.2765321731567383e-01</leafValues></_>
        <_>
          <internalNodes>
            0 -1 146 -143665357 -1717887253 -519458085 -537407077
            307969623 -345390533 -18087948 -1025</internalNodes>
          <leafValues>
            -6.3184982538223267e-01 5.6915879249572754e-01</leafValues></_>
        <_>
          <internalNodes>
            0 -1 11 780119407 651680739 -808322566 -285221265 2142828350
            2011052251 -828145921 -846474277</internalNodes>
          <leafValues>
            -7.8225386142730713e-01 3.9864328503608704e-01</leafValues></_>
        <_>
          <internalNodes>
            0 -1 106 1599946559 2146752909 419905913 -612771345
            -1196011749 -113654627 -354812417 -1086363493</internalNodes>
          <leafValues>
            -6.0038232803344727e-01 4.4849115610122681e-01</leafValues></_>
        <_>
          <internalNodes>
            0 -1 162 -1143616539 -1411677752 -1871498121 -16198979
            -1417174862 677085531 631593620 217794812</internalNodes>
          <leafValues>
            -6.9163644313812256e-01 4.3226531147956848e-01</leafValues></_></weakClassifiers></_>
    <!-- stage 4 -->
    <_>
      <maxWeakCount>7</maxWeakCount>
      <stageThreshold>-1.5998719930648804e+00</stageThreshold>
      <weakClassifiers>
        <_>
          <internalNodes>
            0 -1 13 -2 -788463465 -790964292 -694488614 19898095
            -1845395199 -342097924 -6292546</internalNodes>
          <leafValues>
            -7.9771614074707031e-01 2.3017407953739166e-01</leafValues></_>
        <_>
          <internalNodes>
            0 -1 40 -100997123 -139152866 276996291 -101817875
            1377751827 -804748501 -1592793686 -21430995</internalNodes>
          <leafValues>
            -7.7594465017318726e-01 2.4000163376331329e-01</leafValues></_>
        <_>
          <internalNodes>
            0 -1 5 -2110069009 -341453737 -1056818733 -576782055
            1439740639 -1066874683 -653258561 -67945681</internalNodes>
          <leafValues>
            -6.3259977102279663e-01 3.7114530801773071e-01</leafValues></_>
        <_>
          <internalNodes>
            0 -1 140 618084845 138985481 1896923355 1059341779 294365663
            -2105071995 42015131 230363164</internalNodes>
          <leafValues>
            -6.0574448108673096e-01 4.2987623810768127e-01</leafValues></_>
        <_>
          <internalNodes>
            0 -1 182 -2028998285 1753977218 -1727966859 -976674726
            831514101 1640210464 -1276549643 -608443911</internalNodes>
          <leafValues>
            -4.8126634955406189e-01 4.9284106492996216e-01</leafValues></_>
        <_>
          <internalNodes>
            0 -1 74 -821246964 -646762227 -805256451 -1810165621
            -1039402978 -234355965 -1282436726 -2129501</internalNodes>
          <leafValues>
            -6.5322864055633545e-01 3.5561215877532959e-01</leafValues></_>
        <_>
          <internalNodes>
            0 -1 47 1600134385 -703114758 16986509 879653087 813695321
            -101776622 -786281692 2132937246</internalNodes>
          <leafValues>
            -6.3126289844512939e-01 3.3689990639686584e-01</leafValues></_></weakClassifiers></_>
    <!-- stage 5 -->
    <_>
      <maxWeakCount>7</maxWeakCount>
      <stageThreshold>-2.1450891494750977e+00</stageThreshold>
      <weakClassifiers>
        <_>
          <internalNodes>
            0 -1 87 -543360513 -677588915 1401275775 -73458721
            -922052401 -107293566 -1280595521 -1145414658</internalNodes>
          <leafValues>
            -6.7352354526519775e-01 3.6520585417747498e-01</leafValues></_>
        <_>
          <internalNodes>
            0 -1 123 717561911 -1611278083 -1056808993 -1107344257
            -1711227141 -611723134 -926157825 -71595861</internalNodes>
          <leafValues>
            -6.9326227903366089e-01 3.4913125634193420e-01</leafValues></_>
        <_>
          <internalNodes>
            0 -1 113 457837553 1039700171 -1751933729 -1109224858
            721646587 -2129686102 923475373 216676860</internalNodes>
          <leafValues>
            -6.9028699398040771e-01 3.1509074568748474e-01</leafValues></_>
        <_>
          <internalNodes>
            0 -1 167 -1173036047 -1064599424 1073746057 -259551069
            -901627307 50565248 -360379483 -574103555</internalNodes>
          <leafValues>
            -5.6484180688858032e-01 3.9379686117172241e-01</leafValues></_>
        <_>
          <internalNodes>
            0 -1 156 -371244537 -552906670 -2130296417 1499447511
            1090695898 -656310269 -1662328680 -18378001</internalNodes>
          <leafValues>
            -4.6173524856567383e-01 4.6522784233093262e-01</leafValues></_>
        <_>
          <internalNodes>
            0 -1 69 -1087281953 -59768611 -704506633 782005458 671199388
            1048576003 -1958679813 -353309711</internalNodes>
          <leafValues>
            -6.2756270170211792e-01 3.7181007862091064e-01</leafValues></_>
        <_>
          <internalNodes>
            0 -1 95 961614039 -186965936 -1878978405 1464665372
            856304177 -1442709498 -1694334027 -1146461730</internalNodes>
          <leafValues>
            -4.7564283013343811e-01 4.6144667267799377e-01</leafValues></_></weakClassifiers></_>
    <!-- stage 6 -->
    <_>
      <maxWeakCount>7</maxWeakCount>
      <stageThreshold>-1.4468044042587280e+00</stageThreshold>
      <weakClassifiers>
        <_>
          <internalNodes>
            0 -1 1 -33622049 -137174774 -816832426 -177208573 -176119671
            -482246623 -486161397 -2497585</internalNodes>
          <leafValues>
            -6.9099926948547363e-01 2.7679622173309326e-01</leafValues></_>
        <_>
          <internalNodes>
            0 -1 124 -3145731 -779632573 -971505263 -788420597
            -745997396 -1073151485 -114646868 -341202500</internalNodes>
          <leafValues>
            -7.4238371849060059e-01 2.9522538185119629e-01</leafValues></_>
        <_>
          <internalNodes>
            0 -1 71 -207171 -6373233 -1870281833 1541275853 -1844946452
            -1986953063 -1314202069 523920054</internalNodes>
          <leafValues>
            -5.6758034229278564e-01 3.2644540071487427e-01</leafValues></_>
        <_>
          <internalNodes>
            0 -1 159 1595912743 1754267818 67241188 -1064844221
            -771147167 2637833 1217088429 -13899153</internalNodes>
          <leafValues>
            -4.8871776461601257e-01 4.6936312317848206e-01</leafValues></_>
        <_>
          <internalNodes>
            0 -1 66 79397535 1268674833 1548910867 -78561211 1779020699
            -1744764928 -452384245 -1165231957</internalNodes>
          <leafValues>
            -6.4066696166992188e-01 3.1899556517601013e-01</leafValues></_>
        <_>
          <internalNodes>
            0 -1 72 633372031 -2012217005 -2092851235 794562708
            337719584 838992000 461949373 975925882</internalNodes>
          <leafValues>
            -5.1993739604949951e-01 3.7393191456794739e-01</leafValues></_>
        <_>
          <internalNodes>
            0 -1 60 390173396 -228653675 1075888540 924733815 297292
            -757452749 -356299848 999430903</internalNodes>
          <leafValues>
            -5.7214319705963135e-01 3.4979283809661865e-01</leafValues></_></weakClassifiers></_>
    <!-- stage 7 -->
    <_>
      <maxWeakCount>7</maxWeakCount>
      <stageThreshold>-1.3376383781433105e+00</stageThreshold>
      <weakClassifiers>
        <_>
          <internalNodes>
            0 -1 18 -85986817 -2075996030 -1073643439 -221341485
            -209464789 -1677492088 -502808430 -1056077</internalNodes>
          <leafValues>
            -6.2749999761581421e-01 4.0000000596046448e-01</leafValues></_>
        <_>
          <internalNodes>
            0 -1 169 -221803765 -2036694502 -2147418029 -783056894
            1553980019 1091010691 1928061921 -252184653</internalNodes>
          <leafValues>
            -6.3526737689971924e-01 3.4824261069297791e-01</leafValues></_>
        <_>
          <internalNodes>
            0 -1 86 -346088705 1541570595 -1023213165 -736997097
            -150330982 -1207720958 -78650970 -5575962</internalNodes>
          <leafValues>
            -4.6945148706436157e-01 4.6001222729682922e-01</leafValues></_>
        <_>
          <internalNodes>
            0 -1 56 -403397846 -782974799 1358991627 -787099165
            -90568487 -268341103 -794254849 -1148479357</internalNodes>
          <leafValues>
            -6.3830459117889404e-01 3.3553487062454224e-01</leafValues></_>
        <_>
          <internalNodes>
            0 -1 112 1371665375 380735571 1359020382 -536829616
            -1659534351 -914161246 1352440292 754710692</internalNodes>
          <leafValues>
            -6.5719127655029297e-01 3.2940790057182312e-01</leafValues></_>
        <_>
          <internalNodes>
            0 -1 48 591871743 -1606414207 97363 393613720 1080705027
            1224839563 -1435561540 132071074</internalNodes>
          <leafValues>
            -5.5337607860565186e-01 3.8602897524833679e-01</leafValues></_>
        <_>
          <internalNodes>
            0 -1 176 -2105073509 676372498 -989855402 10260507 805348011
            2265225 185150716 -909393732</internalNodes>
          <leafValues>
            -5.5435311794281006e-01 3.7458369135856628e-01</leafValues></_></weakClassifiers></_>
    <!-- stage 8 -->
    <_>
      <maxWeakCount>10</maxWeakCount>
      <stageThreshold>-1.5971450805664063e+00</stageThreshold>
      <weakClassifiers>
        <_>
          <internalNodes>
            0 -1 6 -856168705 -1085026045 1696027033 1470091267
            -1287007585 -1014824895 -619988533 -10513909</internalNodes>
          <leafValues>
            -5.7881772518157959e-01 3.1446540355682373e-01</leafValues></_>
        <_>
          <internalNodes>
            0 -1 170 -1685859725 -108871677 134266933 -1050763247
            1610852587 -2094325619 2039392945 -2104119</internalNodes>
          <leafValues>
            -4.4238817691802979e-01 4.2560788989067078e-01</leafValues></_>
        <_>
          <internalNodes>
            0 -1 96 1732763763 583630939 -1022127683 190464286
            1661022267 1186465955 -1819639297 -2015420197</internalNodes>
          <leafValues>
            -4.2150479555130005e-01 4.2119207978248596e-01</leafValues></_>
        <_>
          <internalNodes>
            0 -1 76 -536873857 -104898561 -262145 -2130433 -229394
            -32770 -196610 -14230089</internalNodes>
          <leafValues>
            -3.7198942899703979e-01 4.5735961198806763e-01</leafValues></_>
        <_>
          <internalNodes>
            0 -1 108 1506084873 500814877 -362624865 -573472681
            -527906709 -402587520 1753273085 -19231589</internalNodes>
          <leafValues>
            -5.6526821851730347e-01 3.1053045392036438e-01</leafValues></_>
        <_>
          <internalNodes>
            0 -1 184 -1750536387 1002241854 2147418093 -1795756419
            -268453889 -1343356929 -1891764739 -1359487576</internalNodes>
          <leafValues>
            -4.0011644363403320e-01 4.7177308797836304e-01</leafValues></_>
        <_>
          <internalNodes>
            0 -1 149 -1866029198 -620560222 -2147237883 17432578
            -1685458757 1207959560 1234956937 1090906553</internalNodes>
          <leafValues>
            -4.8824355006217957e-01 3.6634311079978943e-01</leafValues></_>
        <_>
          <internalNodes>
            0 -1 12 -899692946 773722369 285295640 -817889268 -804875991
            1207959560 -1053963894 -273690549</internalNodes>
          <leafValues>
            -5.4408228397369385e-01 3.3353823423385620e-01</leafValues></_>
        <_>
          <internalNodes>
            0 -1 166 -409525173 -1038597612 -805300661 17268888 17500199
            -1047887872 -526524278 -257191710</internalNodes>
          <leafValues>
            -4.8806750774383545e-01 3.4705865383148193e-01</leafValues></_>
        <_>
          <internalNodes>
            0 -1 175 90121121 89133579 -2130673519 -787423232 973832376
            -2029486078 -1828708183 206344668</internalNodes>
          <leafValues>
            -7.1640104055404663e-01 2.6350456476211548e-01</leafValues></_></weakClassifiers></_>
    <!-- stage 9 -->
    <_>
      <maxWeakCount>10</maxWeakCount>
      <stageThreshold>-1.3370969295501709e+00</stageThreshold>
      <weakClassifiers>
        <_>
          <internalNodes>
            0 -1 3 -933433609 1599148035 -452439797 -1223458813
            -553012853 -627408700 -116678389 -7343481</internalNodes>
          <leafValues>
            -6.3444107770919800e-01 1.0683760792016983e-01</leafValues></_>
        <_>
          <internalNodes>
            0 -1 82 1548751600 1893290219 -1056882469 491397839 13566558
            -266158077 -1589538275 992618352</internalNodes>
          <leafValues>
            -6.3662040233612061e-01 2.2565156221389771e-01</leafValues></_>
        <_>
          <internalNodes>
            0 -1 109 -649074432 -1056337707 1162380320 -1387724533
            1117159658 -1966505848 -599690934 -292816241</internalNodes>
          <leafValues>
            -4.1140463948249817e-01 3.6867934465408325e-01</leafValues></_>
        <_>
          <internalNodes>
            0 -1 115 74699347 135798874 -1048506029 591921218 109149169
            50790569 52649 1208625610</internalNodes>
          <leafValues>
            -5.1998805999755859e-01 3.2075446844100952e-01</leafValues></_>
        <_>
          <internalNodes>
            0 -1 165 -214436904 -1828601215 65537 -787775358 1258545833
            -1291747327 -259816531 438880520</internalNodes>
          <leafValues>
            -7.1135151386260986e-01 2.2754815220832825e-01</leafValues></_>
        <_>
          <internalNodes>
            0 -1 51 40395377 341328002 17887257 856316165 1241921595
            1007296713 150995004 1533241724</internalNodes>
          <leafValues>
            -5.6171870231628418e-01 2.7352043986320496e-01</leafValues></_>
        <_>
          <internalNodes>
            0 -1 58 1666941657 -1689010029 -805256121 882803858
            1619167248 687996931 -1693941593 -634211615</internalNodes>
          <leafValues>
            -4.9576222896575928e-01 3.1467992067337036e-01</leafValues></_>
        <_>
          <internalNodes>
            0 -1 32 -738131900 1363902553 -2139078540 -69533415
            1224868001 -2088697848 155422847 -1759882194</internalNodes>
          <leafValues>
            -3.9232790470123291e-01 4.1368329524993896e-01</leafValues></_>
        <_>
          <internalNodes>
            0 -1 153 -981104271 85131269 553683409 -1524991674
            -1476346901 -995622774 327880931 361468733</internalNodes>
          <leafValues>
            -4.0597105026245117e-01 3.6857768893241882e-01</leafValues></_>
        <_>
          <internalNodes>
            0 -1 131 1079978273 -183711221 537036856 -1048346486
            -2146944911 -2004221819 -1064786353 -926383989</internalNodes>
          <leafValues>
            -6.5211117267608643e-01 2.3401410877704620e-01</leafValues></_></weakClassifiers></_>
    <!-- stage 10 -->
    <_>
      <maxWeakCount>12</maxWeakCount>
      <stageThreshold>-1.5970284938812256e+00</stageThreshold>
      <weakClassifiers>
        <_>
          <internalNodes>
            0 -1 181 -103811161 -2145998552 82065 -1862156279
            -1093691253 -2096642047 -1878546207 -88355411</internalNodes>
          <leafValues>
            -6.1070913076400757e-01 1.1845102161169052e-01</leafValues></_>
        <_>
          <internalNodes>
            0 -1 2 -709038375 -711536509 269647937 -65484607 -1047560018
            -398229495 -2113241077 1952245669</internalNodes>
          <leafValues>
            -7.2277384996414185e-01 1.7336198687553406e-01</leafValues></_>
        <_>
          <internalNodes>
            0 -1 4 22138607 795427153 -1073434178 -1823909743 771844091
            -358612606 -335489445 -1416936309</internalNodes>
          <leafValues>
            -6.0637056827545166e-01 2.2692467272281647e-01</leafValues></_>
        <_>
          <internalNodes>
            0 -1 119 -1752198142 1627508743 1006714888 -640609657
            814809124 176849025 195060484 -67141205</internalNodes>
          <leafValues>
            -6.3358402252197266e-01 2.3308567702770233e-01</leafValues></_>
        <_>
          <internalNodes>
            0 -1 27 -1862053693 403767442 8454341 353386907 8925408
            848183432 -2013216028 724188723</internalNodes>
          <leafValues>
            -4.8232251405715942e-01 3.0386993288993835e-01</leafValues></_>
        <_>
          <internalNodes>
            0 -1 54 2012719065 1575660273 -68255873 -206569621 938456933
            224231287 2138531957 -1954582546</internalNodes>
          <leafValues>
            -3.5930499434471130e-01 4.2345270514488220e-01</leafValues></_>
        <_>
          <internalNodes>
            0 -1 133 17339018 1081364 -1861925563 1434845471 -2147295075
            -1996423039 118121145 -286650088</internalNodes>
          <leafValues>
            -4.4472819566726685e-01 3.4379196166992188e-01</leafValues></_>
        <_>
          <internalNodes>
            0 -1 57 -1991018642 -1912564989 -1878994868 -683532287
            -1979486201 -92270320 -2121940829 -307367911</internalNodes>
          <leafValues>
            -4.7968682646751404e-01 2.9921847581863403e-01</leafValues></_>
        <_>
          <internalNodes>
            0 -1 73 1945026103 1014742885 1056948223 268320511
            1054831847 -1208582169 1039957213 -1075083650</internalNodes>
          <leafValues>
            -3.1119447946548462e-01 4.5961174368858337e-01</leafValues></_>
        <_>
          <internalNodes>
            0 -1 150 1359405835 1343946752 1073758210 -1055850485
            -1022637587 806060034 -1048065896 1842630708</internalNodes>
          <leafValues>
            -7.1727257966995239e-01 2.0570959150791168e-01</leafValues></_>
        <_>
          <internalNodes>
            0 -1 132 -1877458927 218202181 -1861660515 986972160
            536922283 251854985 847856305 446677948</internalNodes>
          <leafValues>
            -5.2474266290664673e-01 2.5601777434349060e-01</leafValues></_>
        <_>
          <internalNodes>
            0 -1 20 -530504986 236015632 536957087 -1429113825 268644353
            1376262272 -2096549720 -492601089</internalNodes>
          <leafValues>
            -7.3217093944549561e-01 1.7843297123908997e-01</leafValues></_></weakClassifiers></_>
    <!-- stage 11 -->
    <_>
      <maxWeakCount>12</maxWeakCount>
      <stageThreshold>-1.5441036224365234e+00</stageThreshold>
      <weakClassifiers>
        <_>
          <internalNodes>
            0 -1 45 -740597815 -751091301 4243547 -89460481 314704566
            1636253701 -1862178512 -17635465</internalNodes>
          <leafValues>
            -6.4374482631683350e-01 3.5137701779603958e-02</leafValues></_>
        <_>
          <internalNodes>
            0 -1 191 -1217161949 -1591951290 13893640 -343457648
            -1310789086 -1197277175 -931055504 -151543453</internalNodes>
          <leafValues>
            -4.7233107686042786e-01 2.4547578394412994e-01</leafValues></_>
        <_>
          <internalNodes>
            0 -1 0 14044776 -1971162302 -687795456 -1392045885
            1712972775 -1828679672 252353315 -1991516021</internalNodes>
          <leafValues>
            -7.0041966438293457e-01 1.7949311435222626e-01</leafValues></_>
        <_>
          <internalNodes>
            0 -1 171 -1862082275 -1593278448 1628461957 -1760867952
            420192415 545914880 229333637 -354549272</internalNodes>
          <leafValues>
            -4.7539749741554260e-01 2.8578040003776550e-01</leafValues></_>
        <_>
          <internalNodes>
            0 -1 88 117439467 -1322320001 2130706431 1476165615 -32905
            209633151 1501549759 763039694</internalNodes>
          <leafValues>
            -3.6102080345153809e-01 3.9351186156272888e-01</leafValues></_>
        <_>
          <internalNodes>
            0 -1 37 1082452710 -184139753 1124108319 -1593245685
            2072543530 -2113863680 537149483 -125173749</internalNodes>
          <leafValues>
            -5.9303116798400879e-01 2.5092396140098572e-01</leafValues></_>
        <_>
          <internalNodes>
            0 -1 34 -238443440 1934051649 -2013101743 -1826947069
            -2111765420 2013855752 1510712074 -150790124</internalNodes>
          <leafValues>
            -3.8213935494422913e-01 3.4817093610763550e-01</leafValues></_>
        <_>
          <internalNodes>
            0 -1 43 1351042747 -1816051696 -670870763 -1833303719
            1115750978 -1457315677 1124137120 -101387615</internalNodes>
          <leafValues>
            -4.6093547344207764e-01 2.7672925591468811e-01</leafValues></_>
        <_>
          <internalNodes>
            0 -1 55 -524254972 -766492668 1090830457 -653967343
            1073764431 -1073708864 -2147446561 -1735868262</internalNodes>
          <leafValues>
            -5.9777289628982544e-01 2.1974453330039978e-01</leafValues></_>
        <_>
          <internalNodes>
            0 -1 157 139830722 204620673 -2147483331 1392956428
            -1853627686 75563009 285938058 354354284</internalNodes>
          <leafValues>
            -5.3354048728942871e-01 2.5022381544113159e-01</leafValues></_>
        <_>
          <internalNodes>
            0 -1 68 -2147101374 303137032 -1879046132 -787017678
            -2146663910 671301635 1529454891 -73712901</internalNodes>
          <leafValues>
            -4.2765691876411438e-01 3.0989554524421692e-01</leafValues></_>
        <_>
          <internalNodes>
            0 -1 21 -526954027 -2123775977 536908001 1578029202
            1090717866 -676822904 1078018688 -696190443</internalNodes>
          <leafValues>
            -5.8435672521591187e-01 2.3020523786544800e-01</leafValues></_></weakClassifiers></_>
    <!-- stage 12 -->
    <_>
      <maxWeakCount>13</maxWeakCount>
      <stageThreshold>-1.5435056686401367e+00</stageThreshold>
      <weakClassifiers>
        <_>
          <internalNodes>
            0 -1 192 -69732093 -460357463 -2147430351 1569952155
            986619923 -1576804350 -768896892 -23074055</internalNodes>
          <leafValues>
            -5.8997052907943726e-01 6.6371679306030273e-02</leafValues></_>
        <_>
          <internalNodes>
            0 -1 93 1403917503 -708374525 1359036501 -539274921
            -1475755826 -1474690919 -1282682447 -1146438722</internalNodes>
          <leafValues>
            -3.7070101499557495e-01 3.3268854022026062e-01</leafValues></_>
        <_>
          <internalNodes>
            0 -1 126 13575315 105022038 -1878965887 1101846684 411380665
            -2083286613 160371405 149827592</internalNodes>
          <leafValues>
            -6.5779781341552734e-01 1.7116047441959381e-01</leafValues></_>
        <_>
          <internalNodes>
            0 -1 161 9966418 -1606320048 1073746308 -624279332
            -930465392 -1742077816 1896579925 -18884340</internalNodes>
          <leafValues>
            -4.7430342435836792e-01 2.4477042257785797e-01</leafValues></_>
        <_>
          <internalNodes>
            0 -1 31 1346689044 68207046 1426084831 1028411476 1476423937
            731648 1786884405 991383178</internalNodes>
          <leafValues>
            -4.5328769087791443e-01 2.6570281386375427e-01</leafValues></_>
        <_>
          <internalNodes>
            0 -1 42 -1532802865 716822531 -1744224236 1719718026
            1108410408 -1736372096 -368476119 -427128098</internalNodes>
          <leafValues>
            -5.6833326816558838e-01 2.0822942256927490e-01</leafValues></_>
        <_>
          <internalNodes>
            0 -1 134 -1557825243 -2013232960 -2147450726 -1062665789
            -1932981590 -1602191360 -2146836386 -2010398547</internalNodes>
          <leafValues>
            -5.0390022993087769e-01 2.3687316477298737e-01</leafValues></_>
        <_>
          <internalNodes>
            0 -1 44 1644085721 -786276281 139562 1707589727 13172969
            180257 -2147417572 -1088277721</internalNodes>
          <leafValues>
            -4.3329998850822449e-01 2.7061712741851807e-01</leafValues></_>
        <_>
          <internalNodes>
            0 -1 65 1162842229 1108017152 16830931 2073248922 964702978
            50515980 817915912 1940259541</internalNodes>
          <leafValues>
            -4.4401395320892334e-01 2.8383481502532959e-01</leafValues></_>
        <_>
          <internalNodes>
            0 -1 28 738382060 -1872752376 268484767 -593733583 537989138
            -1291810804 -1576932620 -1626613094</internalNodes>
          <leafValues>
            -3.5540741682052612e-01 3.6768445372581482e-01</leafValues></_>
        <_>
          <internalNodes>
            0 -1 49 -268017633 1410342977 285605915 -1190969344
            1610826328 159908000 697008362 -1425391408</internalNodes>
          <leafValues>
            -3.7121146917343140e-01 3.2138890027999878e-01</leafValues></_>
        <_>
          <internalNodes>
            0 -1 39 -825564956 -796483578 -1056194555 287025409
            -2096906175 1073741825 1477181449 -986459453</internalNodes>
          <leafValues>
            -3.4146189689636230e-01 3.5817986726760864e-01</leafValues></_>
        <_>
          <internalNodes>
            0 -1 183 570676995 -1515438062 8994816 1090748426
            -1727291238 131202 446278529 -761577252</internalNodes>
          <leafValues>
            -4.0903368592262268e-01 2.9969489574432373e-01</leafValues></_></weakClassifiers></_>
    <!-- stage 13 -->
    <_>
      <maxWeakCount>15</maxWeakCount>
      <stageThreshold>-1.6787295341491699e+00</stageThreshold>
      <weakClassifiers>
        <_>
          <internalNodes>
            0 -1 17 -737938402 268632085 -653273344 -503114977 98587
            16777219 1393421303 -11550014</internalNodes>
          <leafValues>
            -6.0963028669357300e-01 -2.8258888050913811e-02</leafValues></_>
        <_>
          <internalNodes>
            0 -1 77 302465427 2039939395 1346502921 -1837360123
            -1073414008 -360480742 -2147224597 -80057023</internalNodes>
          <leafValues>
            -4.5720943808555603e-01 2.1893575787544250e-01</leafValues></_>
        <_>
          <internalNodes>
            0 -1 174 475750848 294731921 201809 1196478610 -1853624181
            -1566178301 -1185153303 -1928128360</internalNodes>
          <leafValues>
            -4.3127915263175964e-01 2.4852743744850159e-01</leafValues></_>
        <_>
          <internalNodes>
            0 -1 155 1765859331 -1603239732 -2013265607 26827789
            1762271433 1074102409 436298427 1335540474</internalNodes>
          <leafValues>
            -3.4048855304718018e-01 3.3261689543724060e-01</leafValues></_>
        <_>
          <internalNodes>
            0 -1 127 607979575 -1249603567 1091080341 -1789685672
            838863499 -1333473151 -2135764501 -1836117665</internalNodes>
          <leafValues>
            -5.8092719316482544e-01 2.0298281311988831e-01</leafValues></_>
        <_>
          <internalNodes>
            0 -1 147 -914259678 1214154754 1233190912 -779747192
            1107888679 134260897 16826962 -365459318</internalNodes>
          <leafValues>
            -7.4615919589996338e-01 1.5225566923618317e-01</leafValues></_>
        <_>
          <internalNodes>
            0 -1 64 -1068231785 -799989695 -1862200955 855851217
            402669601 595591169 168422056 454527673</internalNodes>
          <leafValues>
            -3.5133123397827148e-01 3.1101626157760620e-01</leafValues></_>
        <_>
          <internalNodes>
            0 -1 24 64586175 -796229223 1073824014 1561739293
            -2146925952 176717960 -2147302700 1332569694</internalNodes>
          <leafValues>
            -3.5588392615318298e-01 3.3233758807182312e-01</leafValues></_>
        <_>
          <internalNodes>
            0 -1 14 -1043349303 -783822516 393217 -755478068 131202
            -2147090430 8486977 2028749524</internalNodes>
          <leafValues>
            -6.0459125041961670e-01 1.9872523844242096e-01</leafValues></_>
        <_>
          <internalNodes>
            0 -1 84 907950922 901972245 1073939593 1628898561 1103757317
            411566251 1208615040 -348499912</internalNodes>
          <leafValues>
            -4.9790990352630615e-01 2.2224919497966766e-01</leafValues></_>
        <_>
          <internalNodes>
            0 -1 103 1359710216 622985365 1363301841 542179589 814268954
            -1600061425 -2113206257 252320174</internalNodes>
          <leafValues>
            -4.0284910798072815e-01 2.9132628440856934e-01</leafValues></_>
        <_>
          <internalNodes>
            0 -1 8 1698751820 587333713 268436824 -50315248 178309614
            1753747457 151245738 1082855578</internalNodes>
          <leafValues>
            -4.9299091100692749e-01 2.3290050029754639e-01</leafValues></_>
        <_>
          <internalNodes>
            0 -1 154 1526332783 1358548735 -1048841 1877573566 249539257
            268431357 -947937697 -1201953730</internalNodes>
          <leafValues>
            -2.4620904028415680e-01 4.7045618295669556e-01</leafValues></_>
        <_>
          <internalNodes>
            0 -1 62 671314638 215285783 -805306210 1195115350 150994949
            -528482301 -1664972248 460224868</internalNodes>
          <leafValues>
            -5.9524834156036377e-01 2.0205487310886383e-01</leafValues></_>
        <_>
          <internalNodes>
            0 -1 89 1220794578 549519511 -2126458879 -1933156091
            -368375132 -1425536880 286297005 1026253455</internalNodes>
          <leafValues>
            -3.3640646934509277e-01 3.5343387722969055e-01</leafValues></_></weakClassifiers></_>
    <!-- stage 14 -->
    <_>
      <maxWeakCount>16</maxWeakCount>
      <stageThreshold>-1.3456121683120728e+00</stageThreshold>
      <weakClassifiers>
        <_>
          <internalNodes>
            0 -1 139 455064537 -1860972543 1141473493 -495648623
            -1601201950 -2013134637 -1585213265 -1081376516</internalNodes>
          <leafValues>
            -5.5459147691726685e-01 3.0786773189902306e-02</leafValues></_>
        <_>
          <internalNodes>
            0 -1 70 1901484755 1531691281 65563 -1638239781 -788377383
            805929090 -2097106933 -73747611</internalNodes>
          <leafValues>
            -4.1978788375854492e-01 2.2629173099994659e-01</leafValues></_>
        <_>
          <internalNodes>
            0 -1 97 33860110 4333843 -795864918 13238321 1385832491
            1484947586 1744835259 1181332387</internalNodes>
          <leafValues>
            -6.2340861558914185e-01 1.5846033394336700e-01</leafValues></_>
        <_>
          <internalNodes>
            0 -1 80 1351635416 -1827593979 1091698753 387142095
            1235228805 -2147483448 -2147450732 520778576</internalNodes>
          <leafValues>
            -5.3964227437973022e-01 2.0211875438690186e-01</leafValues></_>
        <_>
          <internalNodes>
            0 -1 189 -554792414 -2068873217 -1073791121 -1281214585
            2012473118 -1879572613 -580976738 -126705817</internalNodes>
          <leafValues>
            -2.9723253846168518e-01 3.3749285340309143e-01</leafValues></_>
        <_>
          <internalNodes>
            0 -1 38 -806706738 1258258301 -553713953 -168869891
            1608515429 -838893577 -293601321 -788531716</internalNodes>
          <leafValues>
            -2.8293779492378235e-01 3.7007594108581543e-01</leafValues></_>
        <_>
          <internalNodes>
            0 -1 135 1862246107 939097981 -1090605704 1801945023
            802979746 -277512194 1929134074 1580971454</internalNodes>
          <leafValues>
            -2.6081162691116333e-01 4.2551118135452271e-01</leafValues></_>
        <_>
          <internalNodes>
            0 -1 152 -1055424336 206635008 16781429 -904920960 320391907
            184813721 -2113199119 279547312</internalNodes>
          <leafValues>
            -6.5344899892807007e-01 1.6860860586166382e-01</leafValues></_>
        <_>
          <internalNodes>
            0 -1 46 -1433460521 -548728830 268468246 -86880239 41963625
            -2104557440 -1056923532 1336947440</internalNodes>
          <leafValues>
            -5.7771474123001099e-01 1.7889778316020966e-01</leafValues></_>
        <_>
          <internalNodes>
            0 -1 114 906195616 -2125463550 1073811932 1897140250
            2022424577 688226305 -1148806199 145970171</internalNodes>
          <leafValues>
            -3.8995534181594849e-01 2.7074995636940002e-01</leafValues></_>
        <_>
          <internalNodes>
            0 -1 144 525157175 1939243658 33057 1379975808 -1870099908
            -2139062272 -534609720 -792213301</internalNodes>
          <leafValues>
            -5.2534890174865723e-01 2.1174502372741699e-01</leafValues></_>
        <_>
          <internalNodes>
            0 -1 121 -1074856031 1539244030 -1090519735 -604246101
            1692368670 -422641666 2004839567 -1656766517</internalNodes>
          <leafValues>
            -2.2656619548797607e-01 5.1649492979049683e-01</leafValues></_>
        <_>
          <internalNodes>
            0 -1 59 -1306197802 -709410623 822247689 -1299185406
            134349346 -1207402496 -2013246718 -209547211</internalNodes>
          <leafValues>
            -4.2860114574432373e-01 2.8006905317306519e-01</leafValues></_>
        <_>
          <internalNodes>
            0 -1 90 1363857421 677531664 1082245258 404099359 536871850
            419430656 134291611 462925833</internalNodes>
          <leafValues>
            -4.3573018908500671e-01 2.8040841221809387e-01</leafValues></_>
        <_>
          <internalNodes>
            0 -1 164 1581367974 1157743654 33637899 1195295053
            -2113900507 -2139095039 -242122613 403678380</internalNodes>
          <leafValues>
            -3.4901860356330872e-01 3.5695448517799377e-01</leafValues></_>
        <_>
          <internalNodes>
            0 -1 100 1826088002 1275756563 269750596 469897216 50675753
            -1844445173 1073778313 990067373</internalNodes>
          <leafValues>
            -4.0345647931098938e-01 2.9791966080665588e-01</leafValues></_></weakClassifiers></_>
    <!-- stage 15 -->
    <_>
      <maxWeakCount>14</maxWeakCount>
      <stageThreshold>-1.4236381053924561e+00</stageThreshold>
      <weakClassifiers>
        <_>
          <internalNodes>
            0 -1 98 1904693501 -787677183 1074348291 1997996067
            1611235467 839549057 -662206829 -1679098949</internalNodes>
          <leafValues>
            -5.3159338235855103e-01 4.2288556694984436e-02</leafValues></_>
        <_>
          <internalNodes>
            0 -1 168 859025954 -1467314112 688528 -1575419896 1344299674
            268861569 36373477 -51404595</internalNodes>
          <leafValues>
            -3.8949781656265259e-01 2.3221042752265930e-01</leafValues></_>
        <_>
          <internalNodes>
            0 -1 145 -678835953 1218281492 -2147444716 -645070759
            12643135 17825836 -1837069665 -166747485</internalNodes>
          <leafValues>
            -3.9598432183265686e-01 2.4552424252033234e-01</leafValues></_>
        <_>
          <internalNodes>
            0 -1 177 1636876416 12582912 -1610597990 1905410560
            1359151338 704692224 -1610511653 229347768</internalNodes>
          <leafValues>
            -3.4318798780441284e-01 3.2171574234962463e-01</leafValues></_>
        <_>
          <internalNodes>
            0 -1 15 1393546566 1073840130 -704456432 1141035430
            -2013175805 10 -1824011323 -946549164</internalNodes>
          <leafValues>
            -6.7641413211822510e-01 1.3405103981494904e-01</leafValues></_>
        <_>
          <internalNodes>
            0 -1 50 1158693629 945389575 285327836 1527797975
            -1073732936 -2137390589 -2147307720 990604602</internalNodes>
          <leafValues>
            -3.5407179594039917e-01 3.1078419089317322e-01</leafValues></_>
        <_>
          <internalNodes>
            0 -1 137 1075086848 1678885016 16990225 665683012 -494378247
            -1450475495 160137610 966410882</internalNodes>
          <leafValues>
            -3.7357932329177856e-01 2.8646028041839600e-01</leafValues></_>
        <_>
          <internalNodes>
            0 -1 104 285831768 -1072414719 285266211 1964151048 4177
            939556883 -1644006927 1043798504</internalNodes>
          <leafValues>
            -4.7083887457847595e-01 2.1504658460617065e-01</leafValues></_>
        <_>
          <internalNodes>
            0 -1 120 -21117131 -1187660546 -1342210311 2070249119
            1870413311 -975175681 -706740801 939462587</internalNodes>
          <leafValues>
            -2.1369528770446777e-01 5.7228034734725952e-01</leafValues></_>
        <_>
          <internalNodes>
            0 -1 101 -1354377984 1192313031 152043794 127647964
            2035314856 -2126479198 546062346 -1155806547</internalNodes>
          <leafValues>
            -4.5711684226989746e-01 2.5944417715072632e-01</leafValues></_>
        <_>
          <internalNodes>
            0 -1 81 77203645 -753336250 1073930257 -1692532405
            1612800585 -1609957366 -1945587708 -1104019103</internalNodes>
          <leafValues>
            -4.9274846911430359e-01 2.1256510913372040e-01</leafValues></_>
        <_>
          <internalNodes>
            0 -1 178 -347082473 519579619 653651063 -1263816965
            -2013798509 -420052993 2147237119 -977535268</internalNodes>
          <leafValues>
            -2.4524447321891785e-01 4.6754422783851624e-01</leafValues></_>
        <_>
          <internalNodes>
            0 -1 110 2140662392 1609396076 -318882535 1676078389
            -939538447 1878515679 1323138458 1538260419</internalNodes>
          <leafValues>
            -2.8193056583404541e-01 3.8715252280235291e-01</leafValues></_>
        <_>
          <internalNodes>
            0 -1 52 311927298 1426555020 151007296 -1794043875 65556915
            1426726914 301990856 795831112</internalNodes>
          <leafValues>
            -3.6184620857238770e-01 3.3464625477790833e-01</leafValues></_></weakClassifiers></_>
    <!-- stage 16 -->
    <_>
      <maxWeakCount>14</maxWeakCount>
      <stageThreshold>-1.4220783710479736e+00</stageThreshold>
      <weakClassifiers>
        <_>
          <internalNodes>
            0 -1 10 -404765201 -929971949 490733568 -784192638
            -2129689265 -2105458686 -1970615398 -67779711</internalNodes>
          <leafValues>
            -4.9365559220314026e-01 1.2727272510528564e-01</leafValues></_>
        <_>
          <internalNodes>
            0 -1 188 -1870067030 562336065 155230418 -775290864
            -2004189017 1090650245 1510731968 -189429587</internalNodes>
          <leafValues>
            -4.3449243903160095e-01 1.9164839386940002e-01</leafValues></_>
        <_>
          <internalNodes>
            0 -1 94 854069476 1119961239 553918641 289622469 1879769729
            -2113306357 50391264 654976482</internalNodes>
          <leafValues>
            -4.7575631737709045e-01 1.8208092451095581e-01</leafValues></_>
        <_>
          <internalNodes>
            0 -1 29 1493561389 -1307950846 1375850831 1284112477
            1354901792 1058013323 -267654732 26946678</internalNodes>
          <leafValues>
            -4.1648805141448975e-01 2.5030130147933960e-01</leafValues></_>
        <_>
          <internalNodes>
            0 -1 92 -2079095542 1343623210 288162180 1090847053
            -2147311424 -1987968893 -401044760 -760536146</internalNodes>
          <leafValues>
            -3.9548662304878235e-01 2.2949925065040588e-01</leafValues></_>
        <_>
          <internalNodes>
            0 -1 128 -1688334317 353718486 8864925 965247249 -1073709037
            -2147475287 -2013248829 -1551880185</internalNodes>
          <leafValues>
            -4.7109681367874146e-01 2.1605908870697021e-01</leafValues></_>
        <_>
          <internalNodes>
            0 -1 117 1439819809 -1903640408 1075878097 1234960384
            -670538573 36176015 50574267 -976547802</internalNodes>
          <leafValues>
            -3.3936402201652527e-01 3.0701062083244324e-01</leafValues></_>
        <_>
          <internalNodes>
            0 -1 118 1067180476 -1696858046 1073744157 1493750041
            1611165810 -1342177280 1346387976 1587241158</internalNodes>
          <leafValues>
            -3.7032464146614075e-01 2.7632057666778564e-01</leafValues></_>
        <_>
          <internalNodes>
            0 -1 111 -805141229 1358954753 82176 -2147483648 -1862131703
            -1879047680 -1291059820 1004015352</internalNodes>
          <leafValues>
            -6.8504703044891357e-01 1.4741364121437073e-01</leafValues></_>
        <_>
          <internalNodes>
            0 -1 163 888400560 738099198 -1342210253 -1276321811
            -134283330 787266559 -947929346 -1650459473</internalNodes>
          <leafValues>
            -2.8280466794967651e-01 4.0003186464309692e-01</leafValues></_>
        <_>
          <internalNodes>
            0 -1 186 -285212903 734003001 -285278465 -164102346 -71713
            2130673527 -1384762146 -265256976</internalNodes>
          <leafValues>
            -2.7766352891921997e-01 3.8831937313079834e-01</leafValues></_>
        <_>
          <internalNodes>
            0 -1 195 -462701395 2046820302 -1073860932 989491189
            -1879606818 -1937932801 -1753350659 -820831172</internalNodes>
          <leafValues>
            -2.6597195863723755e-01 3.8035976886749268e-01</leafValues></_>
        <_>
          <internalNodes>
            0 -1 33 1663945154 2125217789 1827667730 1609285495
            -193559116 939162485 -1208003126 -887496994</internalNodes>
          <leafValues>
            -2.4523471295833588e-01 4.3549206852912903e-01</leafValues></_>
        <_>
          <internalNodes>
            0 -1 160 1095414016 -532676352 268502231 1493532672
            -1602092893 -888602620 1250152609 -1047713106</internalNodes>
          <leafValues>
            -3.8456627726554871e-01 2.7021709084510803e-01</leafValues></_></weakClassifiers></_>
    <!-- stage 17 -->
    <_>
      <maxWeakCount>16</maxWeakCount>
      <stageThreshold>-1.4273985624313354e+00</stageThreshold>
      <weakClassifiers>
        <_>
          <internalNodes>
            0 -1 194 -628315181 411959680 -2147385160 -1340796919
            -903110013 1237516292 701073633 -2147035956</internalNodes>
          <leafValues>
            -6.0225141048431396e-01 -8.2077048718929291e-02</leafValues></_>
        <_>
          <internalNodes>
            0 -1 105 118622288 -1278930667 1526878355 1031962949
            269003459 -2146942848 -1870573474 -1716387638</internalNodes>
          <leafValues>
            -5.6190770864486694e-01 1.3294528424739838e-01</leafValues></_>
        <_>
          <internalNodes>
            0 -1 26 1166043353 968065109 268440021 1343914161 285739132
            1042350098 -1988097904 1998782495</internalNodes>
          <leafValues>
            -4.0771842002868652e-01 2.5993746519088745e-01</leafValues></_>
        <_>
          <internalNodes>
            0 -1 25 238052219 830689419 268697922 -1857027818 1091191049
            269025321 -1073663988 606083668</internalNodes>
          <leafValues>
            -7.8663587570190430e-01 9.1559447348117828e-02</leafValues></_>
        <_>
          <internalNodes>
            0 -1 142 2011941024 954617518 2147319742 804224538 -35416
            -2072297489 1822373295 -1610644310</internalNodes>
          <leafValues>
            -2.5287133455276489e-01 3.8240084052085876e-01</leafValues></_>
        <_>
          <internalNodes>
            0 -1 75 -623908257 1542418415 805261039 58457917 1325358919
            124745319 1878884303 -8654977</internalNodes>
          <leafValues>
            -1.8494293093681335e-01 4.7420868277549744e-01</leafValues></_>
        <_>
          <internalNodes>
            0 -1 125 -779180631 -645824370 -2108665592 184631379
            1511989248 1090652736 1242103810 1929832522</internalNodes>
          <leafValues>
            -4.1040903329849243e-01 2.2767654061317444e-01</leafValues></_>
        <_>
          <internalNodes>
            0 -1 99 286462144 -2054061871 -2129653539 -2100292267 34977
            684228751 -1300139997 322570396</internalNodes>
          <leafValues>
            -4.9140831828117371e-01 1.9596074521541595e-01</leafValues></_>
        <_>
          <internalNodes>
            0 -1 65 696955435 1224986624 1224736844 927012878 135672102
            -929562591 50506384 191586312</internalNodes>
          <leafValues>
            -4.4268763065338135e-01 2.2119718790054321e-01</leafValues></_>
        <_>
          <internalNodes>
            0 -1 23 946711 -250478396 -2147467117 1020264710 721617034
            134219777 167870512 -349910496</internalNodes>
          <leafValues>
            -5.2141499519348145e-01 1.7886526882648468e-01</leafValues></_>
        <_>
          <internalNodes>
            0 -1 185 -706748946 -245486018 -25166094 402595390
            -145227778 930905983 -1133158421 -81789025</internalNodes>
          <leafValues>
            -1.6390605270862579e-01 6.8107628822326660e-01</leafValues></_>
        <_>
          <internalNodes>
            0 -1 41 1087873646 138559746 4354 -53456894 -922574591
            -1012924413 964854953 -543047285</internalNodes>
          <leafValues>
            -4.7373157739639282e-01 2.3182974755764008e-01</leafValues></_>
        <_>
          <internalNodes>
            0 -1 141 -1053226 -1216352299 -1050756 2071920360
            -2046826526 -2013430113 -142746145 -1619062869</internalNodes>
          <leafValues>
            -1.8510781228542328e-01 5.7642143964767456e-01</leafValues></_>
        <_>
          <internalNodes>
            0 -1 91 1104281808 487719169 -2113798119 969871873
            -1610480506 553877514 -1560280397 2147141806</internalNodes>
          <leafValues>
            -3.1740796566009521e-01 3.3777147531509399e-01</leafValues></_>
        <_>
          <internalNodes>
            0 -1 102 201329314 1644347522 8410144 1720848733 -351584069
            402685954 671836876 1342853130</internalNodes>
          <leafValues>
            -6.1106395721435547e-01 1.6884692013263702e-01</leafValues></_>
        <_>
          <internalNodes>
            0 -1 83 285292549 1145274752 805425487 2063994884 419431681
            -1337982975 -620541772 436616026</internalNodes>
          <leafValues>
            -4.8262411355972290e-01 2.2198420763015747e-01</leafValues></_></weakClassifiers></_>
    <!-- stage 18 -->
    <_>
      <maxWeakCount>19</maxWeakCount>
      <stageThreshold>-1.6829156875610352e+00</stageThreshold>
      <weakClassifiers>
        <_>
          <internalNodes>
            0 -1 16 1660830671 -863825897 -2146349575 -53039095
            -1467240381 -2130083701 -1146912110 -7100216</internalNodes>
          <leafValues>
            -5.7649093866348267e-01 -6.6183134913444519e-02</leafValues></_>
        <_>
          <internalNodes>
            0 -1 36 -863198684 -1909587694 -519729149 -277778421
            327196810 -1977024000 50504203 -949452279</internalNodes>
          <leafValues>
            -6.3658845424652100e-01 1.0004718601703644e-01</leafValues></_>
        <_>
          <internalNodes>
            0 -1 187 217053698 1166213258 557186 -74808832 -1065121212
            547979400 -1710587740 -500977658</internalNodes>
          <leafValues>
            -3.1860709190368652e-01 2.7695477008819580e-01</leafValues></_>
        <_>
          <internalNodes>
            0 -1 85 -1217929521 490303359 -1661063181 973057775
            2104843589 1140260855 -50333729 -8389121</internalNodes>
          <leafValues>
            -1.7273651063442230e-01 5.4246848821640015e-01</leafValues></_>
        <_>
          <internalNodes>
            0 -1 136 1602748075 -135462996 2147483576 -131076 964128654
            246218719 -1354793765 -1887438961</internalNodes>
          <leafValues>
            -1.3223458826541901e-01 5.9509509801864624e-01</leafValues></_>
        <_>
          <internalNodes>
            0 -1 129 -745477239 16973827 16846850 1107525667 -1506565504
            -2147418109 -1593662848 1660979296</internalNodes>
          <leafValues>
            -7.1662175655364990e-01 1.2713822722434998e-01</leafValues></_>
        <_>
          <internalNodes>
            0 -1 116 30005280 42341407 8425811 268485902 1803608164
            -1431822191 973079245 530817946</internalNodes>
          <leafValues>
            -4.2047998309135437e-01 2.2292971611022949e-01</leafValues></_>
        <_>
          <internalNodes>
            0 -1 179 -241045604 1383575496 784285422 334442430 805305823
            620617724 -239118405 -240125970</internalNodes>
          <leafValues>
            -1.9974258542060852e-01 4.7564125061035156e-01</leafValues></_>
        <_>
          <internalNodes>
            0 -1 63 339817958 1423528148 1258328646 1863991575 453601849
            1879056513 -1574941896 -1553305600</internalNodes>
          <leafValues>
            -4.8534330725669861e-01 2.1294343471527100e-01</leafValues></_>
        <_>
          <internalNodes>
            0 -1 180 839743010 -2132738002 268476417 289505683 34297865
            1610909824 -938622271 -204486619</internalNodes>
          <leafValues>
            -4.9238339066505432e-01 1.9275167584419250e-01</leafValues></_>
        <_>
          <internalNodes>
            0 -1 53 -700456303 1551826774 -809543514 -1108394641
            1467824565 2078113583 -157334420 1566302074</internalNodes>
          <leafValues>
            -2.6603052020072937e-01 3.5440829396247864e-01</leafValues></_>
        <_>
          <internalNodes>
            0 -1 190 -545347830 -805355602 -276889612 2079047550
            -1367494824 234848127 2146940366 -206389645</internalNodes>
          <leafValues>
            -2.6339679956436157e-01 3.6170679330825806e-01</leafValues></_>
        <_>
          <internalNodes>
            0 -1 61 -1075523609 1056290807 2147483647 -805930065
            1072824316 1073643390 -1082261508 -201609729</internalNodes>
          <leafValues>
            -1.8175201117992401e-01 5.1531088352203369e-01</leafValues></_>
        <_>
          <internalNodes>
            0 -1 158 374833738 805109903 8389220 -484597488 -582893514
            1078461600 180535771 -1297194106</internalNodes>
          <leafValues>
            -3.7100109457969666e-01 2.8136798739433289e-01</leafValues></_>
        <_>
          <internalNodes>
            0 -1 107 784472064 1040860225 -482275311 -652984047
            276830608 -1174404992 1753358979 -1572183341</internalNodes>
          <leafValues>
            -7.0550417900085449e-01 1.5304438769817352e-01</leafValues></_>
        <_>
          <internalNodes>
            0 -1 173 22495632 16908368 16793653 1174937732 285447122
            -2096988159 134292145 497875368</internalNodes>
          <leafValues>
            -6.6242009401321411e-01 1.3067305088043213e-01</leafValues></_>
        <_>
          <internalNodes>
            0 -1 30 1625976845 1283870720 -1996472320 1996554246
            301991971 -527826944 1225269816 -239852738</internalNodes>
          <leafValues>
            -4.3007507920265198e-01 2.2708220779895782e-01</leafValues></_>
        <_>
          <internalNodes>
            0 -1 138 528063776 -1359216644 -4292615 2139029503
            -1083347073 -1887471625 -321093773 1555031294</internalNodes>
          <leafValues>
            -2.4488939344882965e-01 4.4297766685485840e-01</leafValues></_>
        <_>
          <internalNodes>
            0 -1 193 -2012053106 -385351424 16386 -1795022845
            -2138345247 -1442805663 76190116 -25104183</internalNodes>
          <leafValues>
            -3.6254966259002686e-01 3.1289052963256836e-01</leafValues></_></weakClassifiers></_></stages>
  <features>
    <_>
      <rect>
        0 0 2 3</rect></_>
    <_>
      <rect>
        0 0 3 6</rect></_>
    <_>
      <rect>
        0 0 3 8</rect></_>
    <_>
      <rect>
        0 0 4 4</rect></_>
    <_>
      <rect>
        0 0 5 2</rect></_>
    <_>
      <rect>
        0 0 5 3</rect></_>
    <_>
      <rect>
        0 0 5 4</rect></_>
    <_>
      <rect>
        0 0 8 5</rect></_>
    <_>
      <rect>
        0 1 3 1</rect></_>
    <_>
      <rect>
        0 1 8 2</rect></_>
    <_>
      <rect>
        0 2 1 2</rect></_>
    <_>
      <rect>
        0 2 3 1</rect></_>
    <_>
      <rect>
        0 2 3 2</rect></_>
    <_>
      <rect>
        0 2 8 7</rect></_>
    <_>
      <rect>
        0 3 4 7</rect></_>
    <_>
      <rect>
        0 3 8 7</rect></_>
    <_>
      <rect>
        0 4 1 1</rect></_>
    <_>
      <rect>
        0 5 8 5</rect></_>
    <_>
      <rect>
        0 6 1 1</rect></_>
    <_>
      <rect>
        0 7 2 1</rect></_>
    <_>
      <rect>
        0 7 3 1</rect></_>
    <_>
      <rect>
        0 10 1 1</rect></_>
    <_>
      <rect>
        0 10 3 1</rect></_>
    <_>
      <rect>
        0 11 1 1</rect></_>
    <_>
      <rect>
        0 12 4 2</rect></_>
    <_>
      <rect>
        0 13 1 2</rect></_>
    <_>
      <rect>
        0 14 3 1</rect></_>
    <_>
      <rect>
        0 14 4 2</rect></_>
    <_>
      <rect>
        0 15 7 3</rect></_>
    <_>
      <rect>
        0 15 8 3</rect></_>
    <_>
      <rect>
        0 17 1 1</rect></_>
    <_>
      <rect>
        0 18 8 2</rect></_>
    <_>
      <rect>
        0 20 1 1</rect></_>
    <_>
      <rect>
        0 20 2 1</rect></_>
    <_>
      <rect>
        0 20 3 1</rect></_>
    <_>
      <rect>
        1 0 4 3</rect></_>
    <_>
      <rect>
        1 1 4 4</rect></_>
    <_>
      <rect>
        1 1 5 4</rect></_>
    <_>
      <rect>
        1 2 1 1</rect></_>
    <_>
      <rect>
        1 2 1 3</rect></_>
    <_>
      <rect>
        1 2 3 6</rect></_>
    <_>
      <rect>
        1 3 2 2</rect></_>
    <_>
      <rect>
        1 6 1 1</rect></_>
    <_>
      <rect>
        1 8 1 1</rect></_>
    <_>
      <rect>
        1 12 1 2</rect></_>
    <_>
      <rect>
        1 13 1 1</rect></_>
    <_>
      <rect>
        1 14 1 1</rect></_>
    <_>
      <rect>
        1 14 3 2</rect></_>
    <_>
      <rect>
        1 15 7 3</rect></_>
    <_>
      <rect>
        1 17 1 1</rect></_>
    <_>
      <rect>
        1 17 5 2</rect></_>
    <_>
      <rect>
        1 18 4 2</rect></_>
    <_>
      <rect>
        1 20 2 1</rect></_>
    <_>
      <rect>
        1 21 2 1</rect></_>
    <_>
      <rect>
        1 21 4 1</rect></_>
    <_>
      <rect>
        2 0 7 2</rect></_>
    <_>
      <rect>
        2 1 7 2</rect></_>
    <_>
      <rect>
        2 2 1 1</rect></_>
    <_>
      <rect>
        2 9 1 1</rect></_>
    <_>
      <rect>
        2 10 1 1</rect></_>
    <_>
      <rect>
        2 14 3 2</rect></_>
    <_>
      <rect>
        2 15 5 3</rect></_>
    <_>
      <rect>
        2 18 3 2</rect></_>
    <_>
      <rect>
        2 18 4 2</rect></_>
    <_>
      <rect>
        2 20 3 1</rect></_>
    <_>
      <rect>
        2 21 3 1</rect></_>
    <_>
      <rect>
        3 0 3 3</rect></_>
    <_>
      <rect>
        3 0 5 2</rect></_>
    <_>
      <rect>
        3 7 6 2</rect></_>
    <_>
      <rect>
        3 10 1 1</rect></_>
    <_>
      <rect>
        3 11 1 1</rect></_>
    <_>
      <rect>
        3 12 2 2</rect></_>
    <_>
      <rect>
        3 15 7 3</rect></_>
    <_>
      <rect>
        3 18 4 2</rect></_>
    <_>
      <rect>
        4 1 5 4</rect></_>
    <_>
      <rect>
        4 6 2 1</rect></_>
    <_>
      <rect>
        4 10 1 2</rect></_>
    <_>
      <rect>
        4 11 1 1</rect></_>
    <_>
      <rect>
        4 13 2 1</rect></_>
    <_>
      <rect>
        4 14 2 1</rect></_>
    <_>
      <rect>
        4 14 2 2</rect></_>
    <_>
      <rect>
        4 15 1 1</rect></_>
    <_>
      <rect>
        4 16 3 2</rect></_>
    <_>
      <rect>
        4 16 6 2</rect></_>
    <_>
      <rect>
        4 18 1 1</rect></_>
    <_>
      <rect>
        5 7 2 1</rect></_>
    <_>
      <rect>
        5 12 1 1</rect></_>
    <_>
      <rect>
        5 12 2 2</rect></_>
    <_>
      <rect>
        5 18 6 2</rect></_>
    <_>
      <rect>
        5 21 4 1</rect></_>
    <_>
      <rect>
        6 7 2 1</rect></_>
    <_>
      <rect>
        6 9 1 1</rect></_>
    <_>
      <rect>
        6 9 5 2</rect></_>
    <_>
      <rect>
        6 14 1 1</rect></_>
    <_>
      <rect>
        6 15 2 2</rect></_>
    <_>
      <rect>
        6 18 1 1</rect></_>
    <_>
      <rect>
        6 21 6 1</rect></_>
    <_>
      <rect>
        7 4 2 2</rect></_>
    <_>
      <rect>
        7 15 1 1</rect></_>
    <_>
      <rect>
        7 16 3 1</rect></_>
    <_>
      <rect>
        7 21 2 1</rect></_>
    <_>
      <rect>
        8 4 3 2</rect></_>
    <_>
      <rect>
        8 5 2 1</rect></_>
    <_>
      <rect>
        8 8 1 1</rect></_>
    <_>
      <rect>
        8 14 5 3</rect></_>
    <_>
      <rect>
        9 0 1 1</rect></_>
    <_>
      <rect>
        9 0 5 2</rect></_>
    <_>
      <rect>
        9 1 1 1</rect></_>
    <_>
      <rect>
        9 1 5 1</rect></_>
    <_>
      <rect>
        9 5 3 2</rect></_>
    <_>
      <rect>
        9 7 2 1</rect></_>
    <_>
      <rect>
        9 9 5 5</rect></_>
    <_>
      <rect>
        9 12 5 2</rect></_>
    <_>
      <rect>
        9 15 5 3</rect></_>
    <_>
      <rect>
        9 16 5 2</rect></_>
    <_>
      <rect>
        9 18 5 2</rect></_>
    <_>
      <rect>
        9 19 4 1</rect></_>
    <_>
      <rect>
        9 21 4 1</rect></_>
    <_>
      <rect>
        10 5 2 2</rect></_>
    <_>
      <rect>
        10 6 3 1</rect></_>
    <_>
      <rect>
        10 8 1 1</rect></_>
    <_>
      <rect>
        10 8 3 1</rect></_>
    <_>
      <rect>
        10 10 4 3</rect></_>
    <_>
      <rect>
        11 0 2 2</rect></_>
    <_>
      <rect>
        11 0 4 8</rect></_>
    <_>
      <rect>
        11 7 2 1</rect></_>
    <_>
      <rect>
        11 18 4 2</rect></_>
    <_>
      <rect>
        12 0 1 1</rect></_>
    <_>
      <rect>
        12 0 3 1</rect></_>
    <_>
      <rect>
        12 0 4 8</rect></_>
    <_>
      <rect>
        12 1 4 2</rect></_>
    <_>
      <rect>
        12 1 4 3</rect></_>
    <_>
      <rect>
        12 16 4 1</rect></_>
    <_>
      <rect>
        12 19 2 1</rect></_>
    <_>
      <rect>
        13 0 3 4</rect></_>
    <_>
      <rect>
        13 6 1 1</rect></_>
    <_>
      <rect>
        13 8 2 1</rect></_>
    <_>
      <rect>
        13 21 3 1</rect></_>
    <_>
      <rect>
        14 10 1 1</rect></_>
    <_>
      <rect>
        14 16 1 1</rect></_>
    <_>
      <rect>
        14 17 3 2</rect></_>
    <_>
      <rect>
        14 19 3 1</rect></_>
    <_>
      <rect>
        14 20 2 1</rect></_>
    <_>
      <rect>
        15 0 3 3</rect></_>
    <_>
      <rect>
        15 1 2 2</rect></_>
    <_>
      <rect>
        15 3 3 1</rect></_>
    <_>
      <rect>
        15 4 3 2</rect></_>
    <_>
      <rect>
        15 6 3 1</rect></_>
    <_>
      <rect>
        15 6 3 2</rect></_>
    <_>
      <rect>
        15 6 3 4</rect></_>
    <_>
      <rect>
        15 6 3 6</rect></_>
    <_>
      <rect>
        15 10 3 1</rect></_>
    <_>
      <rect>
        15 13 3 1</rect></_>
    <_>
      <rect>
        15 16 3 1</rect></_>
    <_>
      <rect>
        15 18 3 2</rect></_>
    <_>
      <rect>
        15 21 3 1</rect></_>
    <_>
      <rect>
        16 1 1 2</rect></_>
    <_>
      <rect>
        16 17 2 2</rect></_>
    <_>
      <rect>
        16 21 2 1</rect></_>
    <_>
      <rect>
        17 3 2 2</rect></_>
    <_>
      <rect>
        17 9 2 1</rect></_>
    <_>
      <rect>
        17 10 1 1</rect></_>
    <_>
      <rect>
        17 12 2 2</rect></_>
    <_>
      <rect>
        17 18 2 1</rect></_>
    <_>
      <rect>
        17 21 2 1</rect></_>
    <_>
      <rect>
        18 0 2 8</rect></_>
    <_>
      <rect>
        18 3 1 1</rect></_>
    <_>
      <rect>
        18 6 1 3</rect></_>
    <_>
      <rect>
        18 8 1 1</rect></_>
    <_>
      <rect>
        18 9 2 1</rect></_>
    <_>
      <rect>
        18 11 1 1</rect></_>
    <_>
      <rect>
        18 12 1 1</rect></_>
    <_>
      <rect>
        18 13 1 1</rect></_>
    <_>
      <rect>
        18 13 2 2</rect></_>
    <_>
      <rect>
        18 14 2 2</rect></_>
    <_>
      <rect>
        18 15 2 2</rect></_>
    <_>
      <rect>
        18 18 2 1</rect></_>
    <_>
      <rect>
        18 19 2 1</rect></_>
    <_>
      <rect>
        18 21 1 1</rect></_>
    <_>
      <rect>
        18 21 2 1</rect></_>
    <_>
      <rect>
        19 5 1 1</rect></_>
    <_>
      <rect>
        19 9 1 2</rect></_>
    <_>
      <rect>
        19 10 1 1</rect></_>
    <_>
      <rect>
        19 12 1 1</rect></_>
    <_>
      <rect>
        19 15 1 1</rect></_>
    <_>
      <rect>
        19 21 1 1</rect></_>
    <_>
      <rect>
        20 0 1 1</rect></_>
    <_>
      <rect>
        20 3 1 2</rect></_>
    <_>
      <rect>
        20 9 1 1</rect></_>
    <_>
      <rect>
        21 0 1 1</rect></_>
    <_>
      <rect>
        21 1 1 1</rect></_>
    <_>
      <rect>
        21 5 1 1</rect></_>
    <_>
      <rect>
        21 6 1 1</rect></_>
    <_>
      <rect>
        21 7 1 1</rect></_>
    <_>
      <rect>
        21 7 1 2</rect></_>
    <_>
      <rect>
        21 18 1 1</rect></_></features></cascade>
</opencv_storage>
